NNG -0.26516 -0.12108 -0.074483 -0.020845 -0.045268 -0.17992 0.16595 0.26941 -0.17946 0.029978 -0.018341 0.018076 -0.057667 0.041707 0.056613 0.032156 0.12079 2.4523e-05 0.02996 -0.019269 0.11635 0.018205 0.09335 -0.042387 -0.04171 -0.017792 -0.075661 0.031819 -0.079551 0.011778 0.055027 0.092768 0.0069778 -8.549e-05 0.048093 0.021137 0.060525 -0.077794 -0.079978 0.016486 0.019475 -0.050514 -0.062712 -0.044837 0.06517 0.015476 -0.071478 0.010368 -0.026306 -0.043133 0.011599 0.047688 0.0068104 0.029328 -0.0080449 -0.008502 0.018517 -0.076249 -0.034869 0.076638 -0.017192 0.0069828 0.052126 0.042009 -0.13055 0.070109 0.026127 -0.047666 -0.024747 0.0554 -0.02466 0.051291 0.011474 0.034703 0.064553 0.080242 -2.9836e-05 -0.051538 0.012188 -0.056979 -0.077134 0.042045 -0.051143 0.055975 -0.013093 0.08688 -0.074578 0.016357 -0.052727 -0.053701 -0.033088 0.042229 -0.10065 -0.066409 0.074845 -0.025158 0.01904 0.072342 -0.01777 -0.044137 
NNP -0.36032 -0.35236 -0.12003 -0.041965 -0.030919 -0.18941 0.12737 0.37253 -0.02357 0.078365 0.13943 0.10127 -0.14808 0.1462 -0.019091 -0.053051 0.061208 -0.11924 0.047766 -0.02133 0.14225 -0.06144 0.036157 0.0011419 0.026799 -0.015788 -0.070674 -0.037605 -0.14589 -0.021348 0.072566 0.0096804 -0.13691 -0.024372 0.13323 0.030515 0.085869 -0.17505 -0.035732 0.0035759 -0.045754 -0.059368 -0.077809 0.083565 -0.0089644 0.12426 -0.050069 0.052253 -0.12292 -0.025704 -0.014171 0.04914 -0.0038756 -0.0010323 -0.098424 0.024468 -0.15028 -0.071686 0.062084 0.082888 0.0076398 0.090877 0.069797 0.14678 -0.13279 0.11386 -0.035036 -0.061863 -0.048466 -0.051135 0.083911 0.042526 -0.010139 0.0065186 0.047578 0.15202 0.052296 -0.15166 -0.033754 -0.0044917 -0.1153 0.10577 -0.079876 0.088359 0.13626 0.044285 -0.11375 0.040737 -0.12826 -0.095919 -0.0035976 0.0093284 -0.11603 0.074038 0.083226 0.077252 0.018768 0.14336 -0.14979 0.084969 
VV -0.20154 -0.09764 -0.07049 -0.0092161 -0.09462 -0.10719 0.16127 0.1848 -0.043176 -0.11479 0.027027 0.0033946 -0.066026 -0.15123 -0.019094 0.066488 0.074115 -0.12961 -0.0025571 -0.051706 0.099553 -0.079126 0.083389 -0.041623 -0.041772 0.061304 -0.04401 -0.01551 -0.026009 -0.023295 0.035063 0.086085 0.033286 0.035843 0.062385 0.041262 0.01134 -0.098422 -0.027382 -0.021685 -0.051055 0.032025 -0.040325 0.018328 0.022912 -0.048882 0.0015915 -0.016941 -0.060707 -0.00065175 -0.042275 0.0035075 0.00094995 0.023763 0.053606 0.003592 -0.039532 0.00024177 -0.0051949 0.0090217 0.061574 -0.045152 0.0046086 0.048891 -0.078126 0.036285 -0.00027525 -0.035388 0.00031185 -0.023119 0.08959 -0.013117 -0.055725 -0.096552 -0.017973 0.057874 0.036727 -0.039306 -0.057773 0.046039 -0.098639 0.013316 -0.040679 0.048557 -0.016901 -0.0394 -0.012401 0.12295 -0.070339 -0.0084693 -0.16676 0.059718 -0.023653 -0.072738 0.053925 0.013474 0.0077336 0.010895 -0.18053 -0.067687 
EC -0.23612 -0.062849 -0.17453 -0.079046 -0.092164 -0.039961 0.21717 0.17481 -0.066783 -0.18956 -0.0098428 -0.014132 0.072307 -0.10071 0.037177 -0.038379 0.028052 0.051832 -0.064104 0.00017881 0.025088 -0.0055524 0.073531 -0.054504 -0.033805 0.057585 -0.03052 0.0011188 -0.022574 0.015409 0.098681 0.015358 -0.049745 -0.0019369 0.068511 0.0039409 0.0066095 0.0074456 -0.043731 -0.00011599 0.030149 -0.12674 -0.051023 -0.051458 -0.034139 -0.016069 0.048349 0.035993 -0.091138 -0.043178 0.066307 0.032518 -0.0241 0.073686 -0.079687 0.033967 0.073005 -0.014482 -0.053779 0.15595 -0.043311 0.049524 0.082896 0.053082 -0.064393 0.069783 0.043549 -0.042343 -0.044968 0.031188 0.027939 0.02028 -0.021762 -0.15499 -0.0848 0.057193 0.06333 -0.031039 -0.022365 -0.009594 -0.039577 -0.01467 0.033239 -0.044042 0.053085 0.0092478 -0.051219 -0.051244 -0.006323 -0.10555 -0.0212 0.057765 -0.078339 0.052129 0.020111 -0.09744 0.011528 -0.13623 -0.082522 -0.038797 
ETM -0.29434 -0.021425 -0.013429 -0.075479 -0.070973 -0.089503 0.23002 0.12195 -0.019766 -0.058736 -0.026187 -0.017153 0.1028 0.029283 0.065691 0.024819 0.18627 0.021898 0.0096148 0.045408 0.069654 0.042324 0.059869 -0.10108 0.0059532 -0.060361 -0.18509 0.1514 -0.059043 -0.034071 0.028602 -0.076293 -0.08669 -0.043565 0.087984 -0.041195 -0.020235 -0.053064 -0.069024 0.0059044 0.079284 -0.095826 0.0055902 0.084407 -0.02072 0.02389 -0.053054 -0.0034707 0.011426 0.013103 -0.0069451 0.082021 0.026754 0.024315 -0.038247 0.019606 -0.062555 -0.07657 0.099557 0.038126 0.034589 -0.011744 0.032487 0.16396 -0.11037 0.0020956 -0.0069528 -0.052954 -0.0028976 -0.037431 0.01191 0.032573 0.021386 -0.068565 -0.043341 0.049462 0.017213 -0.070705 -0.0047197 -0.071938 -0.016733 0.11039 0.054443 -0.045162 0.10445 0.036538 -0.046395 0.039093 -0.042981 -0.069688 -0.06062 0.018569 -0.03193 0.021329 -0.12372 -0.053915 0.033931 0.0086711 0.049183 0.01378 
SS -0.48054 -0.3099 -0.0082767 0.13278 0.38242 -0.03041 0.26007 0.18815 0.08087 0.15716 0.187 0.11221 -0.025664 0.12376 0.10852 -0.040351 -0.044386 -0.1045 0.0040294 0.13774 0.015617 -0.095593 -0.07823 -0.086266 0.1736 -0.086583 -0.093349 -0.070658 -0.009832 -0.036407 0.090425 0.13833 0.10821 0.016449 -0.080152 -0.0046636 0.098053 -0.0027651 -0.051296 -0.025689 -0.095546 -0.029416 0.034287 0.13491 0.060843 0.01269 0.01968 0.092843 0.023098 0.02078 -0.051804 -0.063472 -0.087433 0.042527 -0.040806 0.070298 0.13397 0.019988 -0.11345 0.16158 -0.046242 0.083904 0.097052 0.096556 -0.10304 0.15959 0.016946 0.026578 0.0032194 0.01036 0.1751 0.062006 -0.0045139 0.010522 -0.18015 0.22828 -0.007605 -0.055761 -0.031148 0.058689 -0.054906 0.024148 -0.088878 0.072792 0.22867 -0.0078804 -0.0091892 0.070114 -0.075715 0.028024 -0.015479 0.0055517 0.076172 0.029452 0.083239 0.10179 -0.054305 0.068198 -0.0096538 0.1223 
JKB -0.2084 -0.15044 -0.03177 -0.02162 -0.10646 -0.10656 0.28534 0.20653 -0.014604 0.10927 -0.0041817 -0.020213 -0.033829 -0.043421 0.031487 0.052982 0.17981 -0.075565 -0.035719 -0.1105 0.082088 -0.039445 0.094695 0.016911 -0.063789 0.064671 -0.072386 -0.05363 -0.096262 0.071885 0.025444 0.14447 -0.10312 0.042249 0.037201 0.019281 -0.026733 -0.067608 -0.057477 0.031426 0.10417 -0.13492 -0.008615 -0.11607 -0.027964 -0.034822 -0.0087506 -0.0010147 -0.064679 0.074004 -0.028828 0.080304 0.045476 0.10042 0.028635 -0.066053 -0.05559 -0.031072 0.078938 0.041741 0.05668 0.055016 0.020054 0.13138 -0.091317 0.012663 -0.029882 -0.0044644 -0.057325 0.024346 0.12076 0.067666 -0.11258 0.0065321 0.053125 0.16098 0.035094 -0.026518 -0.01019 -0.086186 -0.13442 0.12742 -0.013138 0.029615 -0.06413 0.062791 -0.035743 -0.053181 -0.009329 -0.058816 -0.083497 -0.07628 -0.10497 0.016675 0.026288 0.045778 -0.019315 0.00036728 -0.079577 0.022663 
SN -0.41658 -0.18863 -0.29614 -0.086635 0.085332 -0.27979 0.16805 0.24441 0.022907 0.11879 0.22373 0.2498 -0.029496 0.11419 0.34477 0.07144 0.032633 -0.12774 0.036482 -0.028242 0.031129 -0.17055 0.15248 -0.096223 -0.043304 0.11316 0.035939 0.037084 -0.24096 0.097023 -0.011337 0.014003 -0.067987 0.056689 0.10996 0.030653 0.02705 -0.03385 -0.11422 0.10595 0.037668 -0.060736 -0.046423 -0.15809 0.012389 0.27779 -0.17336 0.052898 -0.020324 0.073828 0.064373 0.0011213 0.11332 0.013823 0.0051904 -0.075864 -0.13208 -0.15462 0.21317 -0.029846 0.12187 0.093459 -0.053794 0.19562 -0.054997 0.065692 0.057258 0.065328 -0.11946 0.10866 0.040717 -0.056242 -0.22423 0.19319 0.23269 0.18253 0.040459 0.025391 -0.16963 -0.07984 -0.2418 0.045512 -0.18643 0.067253 -0.087718 0.093337 -0.058243 -0.085033 -0.11477 -0.055091 -0.34203 -0.1618 -0.33651 -0.38818 -0.16256 0.048468 0.097806 0.14276 -0.10787 0.17411 
NNB -0.35518 -0.12416 -0.098226 -0.011869 0.032306 -0.14759 0.24326 0.34769 0.0018677 0.055369 -0.043516 -0.031614 -0.03354 -0.012174 0.12195 0.065679 0.10437 -0.043601 0.075887 -0.045802 0.053194 -0.0058377 0.14483 0.015873 -0.0032474 0.042987 0.020913 0.079203 -0.17397 0.085784 0.068458 -0.017624 -0.045208 0.072172 -0.027477 -0.0037964 -0.025157 0.045425 0.054833 -0.0027483 0.10696 -0.055943 -0.017391 -0.10356 -0.055718 -0.044062 -0.075465 -0.00955 -0.016966 0.045136 0.012026 0.018879 0.062505 -0.038427 0.0076568 -0.063511 -0.082516 -0.062382 0.17487 -0.020376 0.037888 -0.078881 0.043634 0.17807 -0.015731 -0.039579 0.053775 0.0060057 -0.079846 0.07632 0.027669 0.047752 0.015384 0.0093226 0.03351 0.10701 0.014333 -0.038681 -0.043548 0.064103 -0.12428 -9.3392e-05 0.082353 0.12701 -0.087626 0.073448 0.022258 0.0097098 -0.032272 -0.028241 -0.04829 -0.022219 -0.25161 -0.19463 -0.059847 -0.014943 0.025593 -0.035738 -0.19762 0.12877 
SF -0.43264 -0.061065 -0.011605 0.027543 0.15058 -0.1024 0.14686 -0.061974 -0.026132 -0.22458 -0.055881 0.046636 0.015202 -0.11102 0.13428 -0.00025144 0.055404 0.16312 -0.076361 0.054455 0.0068933 0.074341 -0.10462 0.06473 -0.020237 -0.044275 -0.00071421 -0.054316 -0.1733 0.11247 -0.22096 0.060644 -0.035983 0.038578 0.049298 0.023463 0.072517 -0.086734 -0.041142 -0.019627 -0.0024285 -0.038842 -0.095828 0.090642 -0.065807 0.12132 0.005382 0.095345 0.054572 0.040735 -0.053859 -0.034388 -0.030334 0.071122 -0.048964 0.13219 -0.042548 -0.037067 0.060902 0.0053524 0.052175 0.039806 0.016639 0.085543 -0.083723 0.097027 0.026561 0.008065 -0.16316 0.071992 0.16778 0.095549 -0.15223 0.26935 0.11998 0.21299 0.0033586 -0.026165 -0.080793 -0.019988 0.021413 0.092023 -0.1773 0.18037 -0.12465 0.14246 0.081585 -0.028078 0.084074 -0.093135 -0.059867 0.097174 0.020451 0.061326 -0.10985 0.10756 -0.074948 -0.027713 -0.13804 0.14146 
JX -0.27575 -0.061106 -0.097588 -0.068386 -0.054086 -0.01514 0.22506 0.19139 -0.091615 -0.01342 -0.013789 0.098215 -0.049118 -0.11117 -0.01575 0.059659 0.15032 -0.062222 -0.035205 -0.07869 0.042697 0.071307 0.01608 -0.048858 -0.06616 -0.0068264 -0.10458 0.12319 -0.049653 0.026409 -0.026558 -0.034081 -0.047549 0.043993 0.070738 -0.017251 -0.021485 0.028797 0.00042686 0.02115 0.052144 -0.06504 0.0044213 0.050371 0.0030857 -0.054708 0.032058 0.049334 -0.0083031 0.093419 0.094074 -0.020907 0.004101 -0.010727 0.036761 -0.09152 0.021537 -0.04605 0.083167 0.029442 -0.015093 -0.0080466 0.037143 0.09815 -0.025628 0.036504 0.040718 0.0088358 -0.031362 -0.015547 -0.01732 0.030662 0.038395 0.049981 0.034501 0.10422 0.037069 -0.036632 -0.0040153 -0.067116 -0.090494 0.0084286 0.01936 0.045618 -0.036187 0.045137 0.059496 0.019705 -0.045716 0.067446 -0.010223 -0.0067582 0.025955 -0.11058 -0.044732 0.091651 0.10403 0.028632 -0.13331 0.10244 
JKO -0.17327 -0.072551 -0.0047293 -0.032186 -0.023818 -0.28192 0.18616 0.16628 -0.058561 0.026042 -0.058472 0.048683 -0.10909 -0.0083679 -0.074069 0.039299 0.1583 -0.056341 -0.18162 -0.050613 0.0028429 0.018428 -0.099538 -0.028244 -0.12925 0.14276 -0.034085 -0.025353 -0.056485 0.11674 0.054681 0.10673 -0.12018 -0.0060408 0.051416 -0.0038671 -0.066993 -0.10587 0.063831 0.0071969 0.089975 -0.20745 0.0080321 -0.08009 -0.11662 -0.022001 0.047849 -0.020082 -0.033403 0.16423 0.029953 0.10909 0.068079 0.0038061 -0.0049772 -0.092216 -0.039993 -0.069612 0.1223 0.042507 0.018845 0.03813 0.10725 0.24167 -0.078691 0.049364 -0.043408 -0.048355 -0.091521 0.0084676 -0.0044355 0.095892 0.024873 -0.11845 0.052999 0.15422 0.022451 -0.045213 -0.030284 -0.075223 -0.15725 0.0094504 0.045058 0.057083 -0.004199 0.059878 0.0011734 0.03917 -0.095733 -0.11271 -0.053676 -0.03332 -0.14565 0.035397 0.076062 0.061209 -0.096113 0.076649 -0.055998 0.023364 
SW -0.59901 -0.47188 -0.27714 -0.22079 0.42213 -0.071355 -0.19086 0.37591 -0.16432 -0.097245 0.058289 0.18416 -0.19463 -0.052604 0.13132 0.078592 0.24833 0.17149 0.12682 0.0093803 0.27529 0.060669 -0.0026118 -0.13183 0.1987 -0.025213 0.064935 -0.14779 -0.29316 0.098476 -0.1692 0.20102 0.014637 0.048448 0.23308 0.13906 0.14462 -0.033695 -0.28655 -0.02839 -0.092715 -0.014188 -0.080847 -0.034976 0.021242 0.072901 0.079765 0.049039 0.1503 0.035378 -0.056117 -0.21612 -0.11815 0.008517 -0.086586 0.1399 -0.027628 -0.0074728 0.11099 0.022053 -0.11355 -0.0017179 0.15621 0.090619 -0.3297 0.14063 0.11815 0.025617 -0.19448 0.095451 0.18687 0.095249 -0.23096 0.34609 0.21159 0.17046 -0.015687 0.24379 -0.34163 -0.26347 -0.283 0.15671 -0.23287 -0.030288 0.085137 0.07736 0.048513 -0.16068 -0.023788 -0.12527 0.016308 -0.15217 -0.07396 -0.11567 -0.17545 0.26289 -0.077542 0.23912 -0.11982 -0.026732 
XSV -0.22227 -0.1303 -0.065557 0.036039 -0.098389 -0.28365 0.29762 0.25469 -0.052707 -0.079395 -0.17617 0.021863 -0.12695 0.019196 -0.037444 0.082627 0.11257 -0.1038 -0.034559 -0.016264 -0.013471 -0.092418 0.012098 -0.0080029 -0.13541 0.048891 0.014616 -0.013631 -0.049324 0.060506 -0.00015458 0.048788 0.021876 0.05257 0.018606 0.017947 -0.023519 -0.036954 -0.01256 0.024436 0.042988 -0.02512 -0.056373 -0.030903 0.034881 0.033265 -0.091266 0.011364 -0.071115 -0.024152 -0.00068576 0.01781 -0.0087146 -0.079549 0.059926 0.0095992 -0.044405 -0.013403 0.034629 -0.031431 -0.021791 -0.0057573 0.012269 0.090093 -0.047041 0.029436 -0.013235 -0.039542 -0.072862 -0.0059252 0.084569 -0.010631 0.017387 0.064119 0.0071227 0.078656 0.037235 -0.08223 -0.071617 0.017785 -0.17823 -0.037322 -0.088688 0.126 0.004046 -0.048065 -0.089464 0.11505 -0.038152 -0.028028 -0.16723 -0.063593 0.048738 -0.1135 0.1478 0.014386 -0.031444 0.037444 -0.038666 -0.073613 
</s> -0.27365 -0.28238 0.37031 -0.097045 -0.1942 0.14398 0.59965 0.010562 -0.36416 -0.10503 0.15137 0.40136 -0.27068 0.016162 0.56182 -0.1274 0.02557 -0.27059 0.20827 -0.24084 -0.059737 0.015763 -0.21617 -0.12018 0.11993 -0.079957 -0.056305 -0.23515 -0.048196 -0.0046078 0.1933 0.18533 -0.24816 -0.13708 0.34755 -0.050856 0.27393 0.25631 0.14138 -0.044583 -0.50176 0.24721 0.10097 -0.030531 -0.17009 0.19341 0.10125 -0.35072 -0.038688 0.099023 -0.23876 0.012934 0.074019 -0.020448 -0.018982 -0.39498 -0.10193 0.085532 0.26191 -0.31279 -0.080333 0.057857 0.20811 0.11301 -0.2905 0.077807 0.080275 0.15299 0.11892 0.27755 -0.093077 0.21517 0.082468 0.10933 -0.013451 0.045758 -0.20934 0.08226 -0.17798 0.033592 0.40023 0.11419 -0.31532 -0.016336 0.02946 -0.16332 -0.001634 -0.23276 -0.072575 -0.3623 0.085222 0.19933 -0.046458 -0.12966 0.10684 -0.26844 0.41619 0.40614 0.018666 0.47786 
SP -0.5252 -0.2783 -0.043656 0.092642 0.2332 0.023072 -0.051531 0.32981 -0.050589 -0.23609 0.024944 0.15641 -0.097226 0.037252 0.17971 0.0031756 0.10912 -0.034264 0.099734 -0.11897 0.22847 -0.019573 -0.03855 -0.028213 0.11307 0.0095989 -0.09687 -0.088337 -0.20026 0.022739 -0.1458 0.18291 0.092474 -0.099641 0.046468 -0.0038341 0.10688 -0.060049 -0.091297 -0.025295 0.012449 -0.089112 -0.0070428 0.054629 0.006362 0.049686 -0.017804 -0.022166 -0.04126 -0.04175 0.088407 -0.11547 -0.023347 -0.019138 -0.062531 0.09358 -0.15377 -0.1074 0.11829 0.038873 0.11418 -0.0061534 0.10586 0.18142 -0.26773 0.059186 0.098922 -0.011025 -0.12204 0.060775 -0.043258 0.049398 -0.16744 0.097265 0.19433 0.12304 0.04904 0.029638 -0.25295 -0.15342 -0.15919 0.15915 -0.20896 -0.064398 0.19114 0.10769 -0.015912 -0.088136 -0.15286 -0.23296 -0.057468 0.035881 0.048788 0.012488 -0.13802 0.15418 0.10775 0.13113 -0.13605 -0.06374 
EF -0.42643 -0.12826 -0.19267 -0.053251 -0.10591 -0.069391 0.34307 0.027251 -0.022114 0.053452 0.13414 0.027636 -0.050301 0.0011339 -0.068415 -0.014103 -0.033638 0.073264 0.074538 0.095836 0.011898 0.05974 -0.072749 -0.081608 0.0016803 0.070798 0.030027 -0.029091 -0.0070176 0.11923 -0.042421 -0.013939 0.0048938 0.059288 0.16757 0.11577 -0.055994 0.092814 -0.16671 0.082176 0.14921 0.074402 0.035601 -0.042323 0.014128 -0.018178 0.021464 -0.033653 0.032516 0.068899 0.1276 4.4525e-05 0.0013184 0.065391 0.098722 -0.031105 -0.076535 -0.042466 -0.024258 0.0096284 0.073027 0.038351 0.079878 -0.028631 -0.040029 0.046988 0.014318 -0.04091 -0.094964 -0.06749 -0.051444 0.033408 -0.020204 -0.12994 0.06578 -0.053264 -0.045603 0.10527 -0.13449 -0.034132 -0.14956 -0.10669 0.070327 -0.12049 -0.078076 -0.12911 -0.071463 0.078436 -0.063393 -0.10408 -0.12888 -0.12945 -0.12558 0.058283 -0.12293 -0.063134 -0.20247 0.086367 -0.055071 0.043297 
JKS -0.17986 -0.035833 -0.062302 0.0030124 -0.065063 -0.037196 0.23012 0.17945 -0.04591 -0.010641 -2.5e-05 0.030136 -0.056315 0.0094476 -0.062225 0.069377 0.093023 0.02907 -0.011233 0.084786 0.019154 0.067945 -0.037509 -0.056872 -0.079119 0.02307 -0.08417 -0.0046074 -0.077675 0.0063978 -0.057707 0.045398 -0.018878 0.00074713 0.098555 -0.082212 -0.074641 0.081998 0.017341 0.037566 0.034627 -0.15083 0.040709 0.030862 0.010674 -0.14808 0.064365 0.0059264 -0.042312 0.0079628 0.083931 0.025227 0.024438 0.032533 -0.009033 -0.064404 -0.021777 -0.042776 0.10322 0.029407 -0.011103 -0.066146 0.057933 0.078536 -0.20276 0.059702 0.051692 -0.03585 -0.032999 -0.058983 0.0041326 0.056889 0.032027 -0.034654 0.049468 0.090237 0.017321 -0.075044 -0.0098621 -0.06458 -0.12869 0.032735 -0.029226 0.024328 0.021963 0.096025 -0.037947 0.0033924 -0.028591 -0.068639 0.03955 -0.028994 -0.095466 -0.085726 -0.10092 0.082913 0.0069231 0.019228 -0.12969 0.07243 
SL -0.69654 -0.63827 0.038693 -0.046726 0.6039 -0.27244 -0.027633 -0.096594 -0.23527 0.092811 0.014942 0.27129 -0.18566 -0.088588 0.19017 -0.070688 0.13349 0.33444 0.10628 0.054606 0.27684 0.20461 -0.22952 -0.021242 0.21211 -0.20421 -0.15021 0.13086 -0.044183 -0.0035551 -0.25754 0.063239 0.040255 -0.17758 0.13004 0.10552 0.34455 -0.18062 -0.34639 0.061924 0.017685 0.19326 -0.14779 0.1639 -0.0054261 0.24747 -0.17048 -0.033093 0.25121 0.1953 -0.088889 -0.017594 -0.065625 -0.038724 -0.10179 0.11126 0.15933 -0.037041 0.26145 -0.18031 0.061548 0.30193 0.085416 0.15647 -0.35202 0.15757 -0.10357 0.032188 -0.15649 0.18704 -0.079218 0.1559 -0.15906 0.099488 0.12703 0.2278 -0.094412 0.058296 -0.49767 -0.2368 -0.4765 -0.11175 -0.32281 -0.060289 0.020053 -0.029609 -0.10273 -0.1517 -0.068036 -0.030707 -0.27895 0.15905 -0.062721 0.041338 -0.0021592 0.39875 -0.19838 0.19275 -0.16237 -0.23578 
EP -0.29406 -0.14488 -0.23657 -0.0027452 0.020129 -0.28419 0.25951 0.1178 0.0064066 0.019152 0.080389 -0.025058 -0.082752 -0.15391 -0.022764 0.10173 -0.026712 -0.025227 -0.048064 -0.018787 0.11471 0.0060934 0.043952 -0.012495 -0.023816 0.071811 0.028599 0.069909 -0.049282 0.062483 -0.075442 0.064379 0.10624 0.073378 0.049423 0.070717 -0.17232 -0.086144 -0.0044989 0.016881 -0.057573 -0.035392 -0.0056136 -0.17769 -0.011583 0.030299 0.11309 0.044792 0.096566 0.033018 0.024006 0.010057 0.013769 0.047491 -0.0065734 0.079544 0.12824 0.022282 -0.030374 -0.046659 0.019543 -0.019743 -0.057713 0.14633 0.0174 0.02045 -0.062762 -0.070168 -0.023306 0.061827 0.034967 -0.023199 0.0648 -0.037669 -0.097271 0.015995 0.081926 -0.071733 0.038635 0.013187 -0.050798 0.040224 -0.017168 0.15644 0.17017 0.10429 -0.083131 -0.015187 -0.069021 -0.14631 -0.10466 0.096709 -0.048178 -0.1027 -0.0088448 0.073265 0.040934 -0.033132 0.026855 0.11678 
JKG -0.26046 -0.15102 0.059259 0.08575 -0.043414 -0.15626 0.2283 0.16908 -0.15874 0.052478 -0.14828 -0.031387 -0.045045 0.038355 0.043033 0.014987 0.13506 0.00633 0.058994 0.03155 0.068817 -0.0023275 0.0014838 -0.064511 -0.016916 -0.023244 -0.19885 0.084029 -0.047081 0.12001 0.024829 0.095924 -0.12194 0.029106 0.044685 0.022532 0.052467 -0.058725 -0.039709 0.0027822 0.063177 -0.096291 -0.050374 0.015533 -0.071877 0.092979 -0.12018 -0.062242 -0.1024 0.046525 0.13188 0.052037 0.031181 0.034493 0.022401 -0.054643 -0.083552 -0.092076 0.14632 0.034268 0.040167 0.057822 0.0039105 0.20026 -0.036504 0.063975 -0.072037 -0.034299 -0.088123 -0.081635 -0.0076213 0.063916 0.002948 -0.01963 0.063015 0.075902 0.032338 -0.080118 -0.012195 -0.024533 -0.12455 0.13649 -0.072793 0.091254 -0.051381 0.016838 -0.05912 -0.0016188 -0.025838 -0.037414 -0.10336 -0.1047 0.030629 0.0041478 0.013902 0.022456 -0.00022938 0.07451 -0.094085 -0.0072294 
MAG -0.19383 -0.119 -0.17976 -0.024313 0.0015988 0.074144 0.066439 0.11883 -0.060544 -0.026052 0.070418 0.057132 -0.00028409 -0.12403 0.10873 -0.030059 -0.044838 -0.029107 -0.028139 -0.14769 0.048305 0.012552 -0.062439 -0.00059501 0.0014582 -0.061437 -0.13512 0.036044 -0.13283 -0.0040358 -0.031041 0.044427 0.010238 -0.0045659 0.08291 -0.049993 0.012864 0.0092097 -0.066686 0.0031488 -0.019674 0.014295 -0.049048 0.022471 0.024704 -0.11334 0.075211 -0.043185 -0.055073 -0.032917 0.07968 0.031915 -0.015941 0.063343 0.051638 0.010389 0.01746 0.010504 -0.058278 0.060853 3.7151e-05 -0.078541 0.0081702 0.031312 -0.015015 0.020116 0.016044 -0.014562 0.035263 -0.028961 -0.020603 -0.00014299 -0.024896 -0.10538 0.030604 -0.022278 -0.00024215 -0.076999 0.013816 -0.034404 0.017964 0.097468 -0.080048 0.016795 -0.01221 0.019406 -0.0094393 0.0047962 -0.0041687 -0.049056 -0.056342 0.061495 -0.023222 -0.0050172 -0.0498 0.013437 0.01046 -0.15253 -0.038333 0.011369 
XSN -0.20353 -0.1145 -0.03475 -0.065075 0.018651 -0.17709 0.16465 0.23607 -0.19477 -0.0069726 -0.10088 -0.034275 -0.0018912 -0.026974 0.094048 0.044434 0.20584 -0.016973 -0.0049524 -0.0042819 0.016271 0.017346 0.049854 -0.16448 -0.042728 -0.051496 -0.16315 0.060118 -0.056606 0.0012077 0.036236 0.058294 -0.019384 0.01687 0.022124 -0.045195 0.020338 -0.1007 -0.07542 0.025462 0.036518 -0.048057 -0.03707 0.047137 0.057081 -0.062371 -0.065004 -0.035901 -0.050171 -0.076031 0.066995 0.046409 -0.017118 -0.0054084 -0.0023298 -0.0083561 -0.065816 -0.10328 0.0175 0.1179 -0.061821 -0.042228 0.069406 0.068066 -0.0032919 -0.03845 -0.012905 -0.066506 0.0087343 0.011166 -0.057347 0.018963 0.0851 0.037436 0.069126 -0.071077 0.009555 -0.051382 0.039276 -0.074819 0.010388 0.042536 -0.00097898 -0.031875 -0.049011 -0.0037955 -0.021758 0.050012 -0.041527 -0.056283 0.039252 -0.1017 -0.045213 -0.088312 0.081832 -0.044634 0.079489 0.091769 -0.022763 -0.063627 
VCP -0.19834 -0.12822 0.026593 0.21896 0.12368 -0.083289 0.19839 0.18629 0.066588 0.11706 -0.10047 -0.0098139 -0.0052283 0.0018628 0.011297 0.041831 0.18497 0.021419 -0.0040152 -0.039619 -0.019051 0.025211 0.0021002 -0.049678 -0.11626 0.0019098 -0.085675 0.037243 -0.062113 -0.0011596 -0.061103 0.12786 -0.011148 0.034546 -0.022196 -0.074797 -0.026486 -0.0044113 0.0068174 0.066759 0.020603 0.020034 -0.025441 -0.062082 0.034552 -0.14718 -0.035395 -0.034816 -0.025149 0.013042 0.018766 0.061899 0.006943 0.040081 0.090221 -0.026918 0.039333 -0.011225 -0.0025717 0.045715 0.0029312 -0.066649 -0.012025 0.040186 -0.045039 -0.067941 -0.012937 0.027886 0.010419 -0.011219 0.011921 -0.015437 -0.027493 -0.002959 -0.012713 0.042076 -0.0040977 -0.046243 -0.026524 0.0020744 -0.030147 0.021165 -0.0867 0.035301 -0.054438 -0.0022674 -0.019735 -0.0071229 -0.064627 0.0012797 -0.059619 -0.064305 -0.055837 -0.0065129 0.068687 0.075213 0.057765 0.0986 -0.10352 0.03464 
VX -0.10816 -0.11639 -0.10189 -0.11243 -0.097092 -0.010774 -0.0068171 0.075435 -0.070214 -0.0051206 0.0047776 -0.034484 -0.081082 -0.20926 0.042208 0.13847 0.099909 -0.0069226 0.033464 0.023084 0.045602 -0.033891 -0.025715 -0.095811 -0.044054 0.026473 -0.087091 -0.028483 -0.049387 -0.072775 -0.097323 0.037421 -0.018601 0.029498 0.1071 -0.035043 -0.080551 -0.068813 -0.011365 -0.028733 -0.066246 0.050726 0.012272 -0.14146 -0.020784 0.014593 0.072178 -0.016014 0.019446 0.039236 -0.039325 0.046614 0.048858 0.027745 0.015502 -0.029787 -0.055509 -0.054821 0.073036 0.003882 0.03926 -0.080307 -0.058599 0.093602 -0.18392 0.068337 -0.030899 -0.025977 0.054351 -0.065109 0.11638 -0.071848 -0.020771 -0.1219 0.024525 -0.031258 -0.019495 -0.095323 -0.016253 -0.038479 -0.058105 0.074188 -0.1165 0.10183 0.11644 0.057056 -0.055307 0.18993 -0.11673 -0.078615 -0.064954 0.043166 -0.040021 -0.016876 -0.047439 0.16023 -0.082961 0.0018553 -0.080394 0.019036 
VA -0.11051 -0.11817 -0.10219 0.037825 0.076924 0.048689 0.040934 0.11254 -0.043368 -0.071207 0.10722 0.094564 -0.01106 -0.050578 0.026769 -0.096187 0.067341 0.072874 -0.0015612 -0.093529 -0.0097409 0.0057766 -0.062943 -0.022438 0.0013483 -0.026431 -0.086596 -0.014257 -0.097211 -0.038423 -0.045765 0.012681 0.061676 0.041952 0.055723 -0.071214 0.012452 0.029264 -0.075376 -0.0011805 -0.059476 0.090122 -0.093334 0.036948 0.0063535 -0.1873 0.055184 -0.092098 -0.072093 -0.11703 0.018497 -0.0018703 -0.061991 0.10219 0.077161 0.11179 0.0023476 0.058279 -0.11103 -0.025037 -0.01635 -0.18857 -0.077129 -0.032981 -0.027374 -0.017468 -0.037914 -0.058086 0.037168 -0.076296 0.021187 -0.032503 -0.041381 -0.096005 0.016817 -0.05116 -0.038933 -0.085944 -0.053467 -0.043687 -0.023744 0.06263 -0.073837 0.010579 -0.033297 -0.033443 -0.024961 0.11899 0.012383 -0.042407 -0.08437 0.089452 -0.061232 -0.072163 0.05927 -0.011447 0.019759 0.071587 -0.13455 -0.03485 
MM -0.24597 -0.18547 -0.091592 0.10175 -0.043185 0.018814 0.13382 0.21608 -0.012043 -0.047644 0.083864 0.11418 -0.021764 -0.073857 0.095278 0.071251 0.022792 -0.0047768 -0.030569 -0.031924 0.09194 0.027087 0.090538 -0.079144 -0.0079642 0.016081 -0.052012 0.11614 -0.1273 0.086303 0.044174 0.0037011 -0.099186 0.037574 0.12377 0.0046288 -0.043824 -0.1542 0.030624 0.025637 0.0079977 0.056556 -0.04268 -0.031011 0.014884 -0.039264 -0.097993 -0.053103 -0.11547 0.013622 0.1461 0.036435 0.074925 -0.0064188 0.014766 -0.038647 -0.079063 -0.067653 0.08455 0.09709 0.097629 -0.012326 0.08421 0.1368 -0.11865 0.10227 0.067821 0.039469 0.018166 -0.054621 0.036167 0.063158 0.017248 -0.10607 -0.045879 0.049442 0.015215 -0.012898 0.031876 0.093842 0.015169 -0.014868 -0.010957 0.076806 -0.13298 0.047278 -0.064881 -0.0093494 -0.043418 0.06553 -0.015165 0.015327 -0.017869 -0.0002942 0.0029462 0.11089 -0.041077 0.0099738 -0.065536 0.12132 
JC -0.16421 -0.21201 -0.068132 0.013815 -0.15763 -0.22564 0.31404 0.22265 -0.058308 0.13405 -0.13097 0.042573 0.029984 0.04074 -0.067029 0.01807 0.26082 -0.068791 0.044683 0.08121 0.055761 -0.011886 0.06518 -0.072316 -0.067054 0.044749 -0.12759 0.013443 -0.070855 0.054776 0.079542 0.062229 -0.18267 -0.043901 -0.0086891 -0.050516 0.01494 -0.14463 -0.012178 0.015835 0.089592 -0.068443 -0.041348 0.044972 -0.076414 0.0046419 -0.10133 -0.036058 -0.12092 0.040948 0.044447 0.0089687 -0.0273 -0.081591 -0.12053 0.026032 -0.049683 -0.019631 0.1388 0.086336 -0.049813 -0.020035 0.11227 0.28537 -0.015453 0.012491 0.016297 -0.037982 -0.083434 -0.094734 0.037562 0.060095 -0.097822 -0.10921 0.1269 0.087126 0.05106 -0.083646 -0.014427 -0.09033 -0.12437 0.18 -0.10533 0.061776 0.090453 0.034837 -0.1606 -0.0053383 -0.10633 -0.07398 0.090608 0.06283 -0.029031 0.097479 0.093818 0.049603 -0.067805 0.17676 -0.013069 -0.042849 
XR -0.18122 -0.066373 0.055239 0.15476 -0.097479 0.064207 -0.027397 0.20621 -0.060807 -0.021365 -0.27298 -0.13577 0.12702 0.14115 0.075686 -0.20617 0.13751 -0.053872 0.20529 -0.19353 -0.012264 -0.15377 -0.017165 -0.14562 -0.023751 -0.29285 -0.16534 0.17765 -0.16818 -0.11 -0.15094 -0.059808 -0.013324 0.024348 0.016438 0.08684 0.020605 -0.039108 -0.11972 0.00064413 -0.11239 0.028622 -0.20953 0.075146 -0.065124 0.033185 0.083624 0.055502 0.0015934 0.18924 -0.048289 -0.075044 -0.082281 -0.06705 0.086959 -0.086308 -0.058947 -0.1911 -0.18431 0.2053 0.021801 -0.11434 0.07906 -0.0011232 0.10406 0.092049 0.13804 0.025557 0.12111 0.0091433 -0.098913 0.079923 -0.11931 -0.096875 0.067394 0.14693 -0.15691 0.2777 0.030593 -0.044394 -0.27832 0.14301 -0.041426 -0.054181 0.23838 -0.00047908 0.051852 0.24694 -0.087501 -0.12543 0.039659 0.37932 -0.062314 -0.024794 -0.0099582 -0.026864 -0.13863 0.18906 0.1768 -0.12594 
NP -0.19112 -0.003256 -0.13928 0.073618 0.15917 0.024572 -0.015949 0.15009 0.029835 -0.11416 0.064031 0.052739 -0.06831 -0.13552 0.069186 0.067632 -0.053153 0.073193 -0.024989 -0.0021449 0.10558 0.10026 -0.0018439 -0.12629 -0.044599 -0.11822 -0.12912 0.10497 -0.1186 0.035613 -0.076211 0.14446 -0.064071 -0.0475 0.077871 0.0055106 0.053044 -0.14692 -8.6576e-05 0.0267 -0.06234 0.09029 -0.0054831 0.0036376 0.0072694 -0.056256 0.098594 -0.04138 -0.0087341 -0.0050023 0.12826 -0.024246 -0.063174 0.1031 0.029205 6.9737e-05 -0.0048258 -0.0054487 -0.06215 0.10581 0.010697 -0.024864 0.065557 -0.032799 0.012385 0.003147 0.025626 -0.053228 0.09672 -0.011549 0.026017 0.023403 0.079279 -0.18993 -0.066983 -0.14294 -0.035606 -0.11247 0.067549 0.083863 0.068051 0.017644 -0.089245 -0.020351 -0.094135 -0.12555 -0.18427 0.031452 -0.15303 -0.23231 0.058401 -0.073433 0.05529 0.049009 -0.0042356 -0.10063 0.081062 0.025884 -0.14884 0.11242 
XSA -0.1232 -0.19584 0.23583 -0.22262 -0.032349 -0.051546 0.019722 0.053978 -0.019741 -0.15051 -0.22478 -0.017577 -0.068553 0.16662 0.17661 -0.12989 0.057102 -0.034006 0.080261 0.12356 0.10348 0.045313 -0.18848 0.051422 0.11162 -0.03976 -0.030539 0.10462 -0.24679 -0.019886 0.10635 0.033457 0.066626 0.16314 -0.025379 -0.026835 0.079062 -0.031916 -0.20333 -0.05784 0.13635 -0.094325 -0.19637 -0.11176 0.097248 -0.14447 0.1028 0.11378 -0.20794 0.036567 -0.17227 0.20619 -0.02193 -0.049285 0.11577 0.049936 0.069652 0.18374 -0.1198 0.059967 -0.051359 -0.026674 0.1835 0.22605 0.06302 -0.0362 0.01999 0.057753 -0.029357 -0.097324 -0.16266 -0.16425 -0.042738 -0.15116 0.14099 -0.049431 0.077609 0.024966 0.031789 -0.13808 0.089058 0.14177 -0.14357 -0.046003 0.043623 -0.22416 0.077527 0.21602 -0.27109 0.23968 0.032101 0.021369 0.041137 0.1591 -0.20327 0.12332 0.2135 0.21728 0.077941 -0.15776 
NR -0.36728 -0.0049115 -0.18307 -0.087155 -0.050894 -0.17147 0.31471 0.33979 0.079077 0.17842 0.19076 0.18866 -0.037703 -0.14109 0.44139 0.36126 0.14404 -0.092114 -0.04547 -0.066973 -0.1636 -0.23822 0.45744 0.0018935 -0.23986 0.13093 0.014311 0.24192 -0.391 0.15221 0.25447 0.11209 0.068846 0.10892 -0.15261 -0.10234 -0.026152 0.021963 -0.041843 0.012333 0.15299 0.17637 -0.15022 -0.24325 -0.034994 0.028625 -0.23563 -0.093221 0.053902 0.073343 0.20241 0.046252 0.16055 -0.02847 0.10786 -0.17538 -0.13513 -0.23096 0.14316 0.13023 0.088968 0.01296 -0.00057694 0.2992 0.22947 -0.079997 0.15264 0.13909 -0.10315 0.29741 0.069696 0.024327 -0.013958 0.31496 0.0083706 0.13346 0.0085844 -0.0059642 -0.11277 0.060996 -0.24676 -0.099789 0.10035 -0.003651 -0.16405 0.06512 -0.030314 -0.13329 -0.099115 0.10065 -0.12375 -0.17548 -0.40293 -0.37647 -0.22888 0.07035 0.069375 -0.21498 -0.25201 0.30673 
MAJ -0.31611 -0.081526 0.094106 -0.060124 0.029109 0.0049464 0.067889 -0.0029408 -0.12683 -0.014288 -0.27574 0.071569 -0.023054 0.022815 -0.048158 0.091663 0.14083 0.16566 -0.033138 -0.053049 0.16804 0.19294 -0.045558 -0.065603 0.02567 -0.20169 -0.18731 -0.056903 -0.10586 0.092721 -0.022175 0.073027 -0.043596 0.030812 0.19335 -0.10796 0.0344 -0.2854 -0.14804 0.12957 0.075934 -0.0023077 -0.071953 0.075991 0.14172 -0.056701 -0.10388 -0.035628 0.089888 0.051106 -0.026298 -0.049585 -0.030869 -0.097503 -0.044723 0.011641 0.13845 -0.048353 0.19363 -0.064796 -0.09469 0.19071 0.037919 -0.017792 -0.23463 0.039666 -0.01098 0.034119 -0.13008 0.12744 -0.0043444 0.054582 -0.070471 0.049627 -0.00066558 -0.023647 -0.0046635 -0.034089 -0.25004 -0.1995 -0.080992 -0.15683 -0.35031 0.097439 -0.18408 0.052231 -0.018477 -0.1722 0.0045553 -0.28592 -0.33199 0.21802 0.11254 0.087722 -0.14878 0.037832 -0.11253 0.15796 -0.023349 -0.018429 
ETN -0.23363 -0.029608 -0.24609 -0.12229 -0.18114 -0.26693 0.03229 0.10064 -0.038642 -0.020957 -0.028666 0.090243 0.10667 -0.013543 -0.017463 -0.066261 0.11479 -0.033948 -0.098779 0.090282 0.074946 0.10651 0.088249 -0.1319 -0.096408 -0.059488 -0.15156 0.11066 -0.10678 -0.032574 0.076034 -0.012711 -0.0097711 -0.019221 -0.012546 -0.062513 0.010764 -0.056083 -0.067676 0.014036 -0.025037 -0.097753 -0.039759 -0.047598 -0.017951 -0.073019 -0.058086 -0.029262 -0.015832 0.052065 -0.16493 0.13751 0.018422 0.07659 -0.018251 -0.057474 0.00092076 0.0053324 -0.0078979 0.041172 0.11156 -0.027271 0.091082 0.049551 -0.12923 0.045182 0.052158 -0.063489 0.07473 0.060485 -0.028307 0.085962 0.019714 -0.0594 -0.023068 0.096604 -0.013584 -0.024931 0.015197 -0.068382 -0.029285 0.13942 0.033519 -0.011953 -0.046727 -0.051603 -0.086467 0.041162 -0.020397 -0.044964 0.051565 0.078182 0.037881 0.063551 0.04653 -0.15953 0.027229 -0.046968 0.0747 -0.11151 
XPN -0.28677 -0.4254 0.1233 -0.11206 -0.052028 -0.23213 0.2093 0.24868 -0.0070537 -0.016081 -0.050427 0.057008 -0.22537 0.090611 0.040471 -0.053252 0.08193 0.33229 0.047923 0.12585 0.30307 0.18156 0.084895 -0.04304 -0.09907 -0.11141 -0.23445 0.22809 -0.1703 -0.13708 0.034149 0.18617 0.01917 -0.057875 0.1618 0.079521 0.078909 -0.14331 -0.14156 0.041842 -0.10513 -0.064775 -0.053739 -0.029052 -0.015044 0.20555 -0.14681 0.010263 0.25979 0.055413 0.091555 0.039633 0.023748 0.055469 -0.10563 -0.031724 -0.0086191 -0.1109 0.0024069 0.011541 -0.026395 0.11111 0.068238 -0.072108 -0.24818 0.10839 0.025457 0.036579 -0.16901 0.052566 -0.068164 0.084722 -0.087862 0.29968 0.15229 0.20299 -0.053719 0.069318 -0.15809 -0.02344 -0.069101 0.02232 -0.24297 0.066162 -0.050752 0.033439 -0.094225 0.0073585 -0.031527 0.042542 -0.072353 -0.03568 0.080881 -0.055112 0.043492 0.087186 -0.13327 0.002674 -0.071576 -0.19369 
JKQ -0.22128 0.19449 -0.26077 0.082143 -0.022188 -0.026127 0.20295 0.17487 -0.079801 0.060434 -0.10469 0.23232 0.23011 0.092375 0.089702 -0.13086 -0.46231 0.21718 -0.2587 -0.10983 -0.054603 0.054622 -0.19795 0.17425 -0.035333 -0.02153 -0.046094 0.028759 0.028962 -0.08382 0.10196 -0.065242 -0.23393 -0.20905 0.0051935 -0.1555 0.077995 -0.28329 0.048284 0.017349 0.0089078 -0.032839 0.061779 0.042097 -0.005559 0.16218 0.018678 0.038059 0.10077 0.16369 -0.042473 0.10317 0.0307 0.19002 -0.032534 0.087592 0.34636 0.024836 -0.063082 0.068111 0.078824 0.11802 -0.27551 -0.076141 -0.25945 0.18411 -0.20509 -0.035378 0.17484 0.0099349 0.20569 0.0366 0.032417 -0.23145 -0.058451 0.050528 -0.16588 -0.23513 -0.12849 -0.077648 -0.26336 0.024002 -0.054124 0.027097 0.166 0.079338 -0.079922 0.24611 -0.27333 -0.06112 0.044852 -0.32721 0.045405 0.10425 0.048327 0.1838 0.058395 0.21396 -0.01542 -0.12228 
SH -0.21587 -0.40959 -0.35295 -0.01411 -0.049217 -0.072795 -0.042673 0.54006 -0.12356 0.45634 0.44158 -0.037553 0.082405 0.19432 0.18167 -0.11872 0.25345 0.11681 0.28289 0.49907 -0.089649 -0.23489 0.084108 -0.37253 0.1248 -0.032219 -0.32141 -0.20138 0.01928 -0.11868 0.25142 0.21392 -0.032639 0.35802 -0.072898 0.069739 0.028757 -0.08172 0.012689 -0.029837 -0.25671 -0.15303 -0.035406 -0.093992 0.070839 0.1424 -0.09958 0.10399 -0.088823 -0.086617 0.030793 -0.13597 0.074606 0.097257 -0.067652 -0.1542 -0.015936 -0.22279 -0.10302 0.27558 0.018275 0.135 -0.11963 -0.036472 -0.15159 0.25341 -0.01988 0.044588 -0.13754 0.0031602 0.082342 0.031456 0.024634 0.29623 -0.065345 0.21869 0.08348 0.023085 0.076273 0.065839 -0.10505 0.23589 0.014006 0.20884 0.047157 0.16442 0.19555 0.18346 -0.097782 0.18851 -0.055251 -0.17125 -0.054073 0.037137 -0.16973 0.030006 0.13895 0.52442 -0.28988 0.36742 
NA -0.35674 -0.0035954 0.076074 0.12111 0.10093 -0.3193 -0.012844 0.22408 -0.027986 0.18498 0.015279 0.00049715 0.080615 0.11249 0.12309 -0.075605 0.13752 -0.22937 0.12059 -0.16327 0.102 0.15324 0.040303 -0.038342 -0.092995 0.072699 -0.1415 0.082481 -0.10069 0.1503 -0.032801 -0.011133 -0.26962 0.08526 0.40897 0.037822 -0.069464 0.00064554 0.041426 0.21256 -0.083273 0.35157 0.055524 0.09911 0.10708 0.0062663 0.0087814 -0.051017 -0.14133 0.050608 -0.05498 0.092638 0.012356 -0.06451 0.014125 0.12835 -0.010289 0.089801 -0.026897 0.2015 0.13862 -0.022083 0.1898 0.2359 -0.12158 0.063227 -0.060393 -0.063976 -0.16966 0.037462 -0.047447 0.099893 -0.17733 -0.1084 0.34659 0.15135 0.18407 -0.02758 -0.16276 -0.045786 0.019923 0.18371 -0.023 0.095429 0.39065 0.1449 0.26621 -0.00652 -0.15723 0.073647 -0.19432 -0.18227 -0.075463 0.22105 0.17651 -0.0034811 -0.037668 -0.10209 -0.25799 0.12567 
SE -0.25902 -0.043473 -0.16304 0.034567 0.28505 0.4176 -0.69369 0.77486 0.29416 0.22214 0.089943 0.36199 -0.043038 0.19428 0.18557 -0.20348 0.12019 0.095966 -0.022856 0.3057 0.29508 0.059373 0.02235 -0.15347 -0.02118 -0.006397 -0.35132 -0.25709 -0.49147 0.056173 0.63593 0.70759 0.36581 0.15659 0.085477 -0.18751 -0.1011 0.01856 0.035045 -0.051661 -0.40419 -0.35216 0.098381 0.35446 0.10168 -0.38316 0.18221 -0.024878 0.25202 0.1481 0.47466 -0.31473 -0.05289 0.25931 0.021747 0.037214 0.31745 -0.02239 -0.11521 0.36494 -0.27812 -0.28908 -0.14818 0.10985 -0.11004 0.23007 0.055855 0.20187 -0.10179 -0.33383 0.16233 0.12017 -0.11675 -0.1123 -0.30978 0.19502 -0.086206 0.29427 -0.46135 0.21226 -0.2551 0.20314 0.03147 -0.010926 0.3709 0.046032 0.40131 -0.045126 -0.26687 -0.0010362 -0.14263 -0.29905 0.22339 -0.026105 -0.6912 -0.060979 0.054733 0.43449 -0.15674 -0.27717 
VCN -0.04308 -0.31168 0.15634 0.13827 0.046812 0.25741 -0.010574 0.25847 0.2588 -0.097181 0.010716 0.055144 0.022 0.0773 0.050848 -0.14807 0.092239 0.20294 -0.095267 -0.015486 -0.020806 0.21891 -0.0047025 -0.066494 -0.059764 -0.16303 -0.058258 0.026841 -0.2206 -0.059179 -0.15356 -0.16723 -0.025564 0.035318 0.11482 -0.14075 -0.15074 -0.091043 -0.028074 0.13657 -0.0037825 0.13571 -0.096241 -0.13656 0.11239 -0.2 -0.034297 -6.2896e-05 -0.070946 -0.14564 0.007183 0.10308 -0.011647 0.088707 -0.023394 0.12085 0.01002 0.021401 -0.019585 0.048916 -0.027774 -0.046728 -0.07526 -0.064706 -0.12813 0.009072 -0.10195 0.03691 0.21986 -0.034096 0.088052 -0.022938 0.062252 -0.12328 -0.19214 -0.15239 -0.12899 -0.10097 -0.031031 -0.025202 0.071631 -0.11681 -0.055659 -0.040942 -0.025939 -0.076628 -0.24408 0.11025 -0.040735 -0.13192 0.048294 -0.025958 0.13685 0.0098181 0.19706 -0.025757 -0.0017622 0.061729 0.030135 0.017301 
SO -0.47772 -0.026303 -0.42569 -0.21218 0.171 0.15623 0.26538 0.38961 0.0263 0.36448 0.31973 -0.067813 0.10322 0.28423 0.55507 0.025212 0.25725 -0.035246 -0.019918 0.08501 -0.25443 -0.088181 -0.080761 -0.053735 -0.2123 0.1463 0.12447 -0.00092082 -0.089484 0.033079 -0.040466 -0.021052 0.18534 0.075279 -0.39136 0.0098849 0.013433 0.046588 0.14143 0.13115 0.25538 -0.015487 0.20834 -0.20452 -0.12523 0.1898 0.014278 0.026385 0.13282 0.13354 0.19096 -0.070454 0.026174 0.0036889 0.11137 0.094961 -0.25685 -0.13811 0.044433 -0.10899 0.017928 -0.352 0.059771 0.20432 0.24446 -0.004235 0.29521 -0.0072407 -0.29097 0.13395 -0.062842 0.06147 -0.094733 0.17634 0.42863 0.054282 -0.030527 0.19499 -0.091313 0.024901 0.22309 0.09369 -0.25611 0.25758 -0.19566 0.064372 0.19393 0.1119 0.0045284 0.076926 -0.19871 0.069206 -0.096858 -0.27236 -0.28252 0.061971 -0.17857 0.2458 -0.12116 0.24359 
IC -0.36472 -0.28395 -0.56913 0.039617 0.43907 0.50004 -0.5089 0.56556 0.21855 0.17401 0.24391 0.27506 0.18056 -0.13776 0.05964 -0.21531 -0.25909 -0.16617 -0.092041 -0.032233 0.015017 0.23552 -0.16744 -0.13934 0.053844 -0.070229 -0.24281 -0.13478 -0.11622 -0.09075 -0.020007 -0.077322 0.13509 0.024605 -0.063667 -0.30966 0.14046 0.16458 0.05281 0.21323 -0.27511 0.34767 0.09162 -0.057623 -0.021414 -0.055568 0.14802 0.049025 -0.096299 0.096201 0.19344 0.020874 -0.1085 0.20853 -0.087809 0.083085 0.14757 -0.021941 -0.14204 0.32454 0.01964 -0.039063 0.010903 -0.18373 0.08513 0.13639 0.087368 0.10613 0.093782 -0.12541 -0.17291 -0.10054 -0.085407 -0.22815 0.067166 -0.14556 -0.020664 0.0032261 -0.21295 0.12256 0.47705 -0.14437 -0.3226 0.1024 0.12579 -0.089457 0.25731 0.00084577 -0.13774 -0.12859 -0.054139 0.15593 0.2883 0.3653 0.13109 0.11278 0.15065 -0.049118 -0.29758 0.039928 
JKV -0.21032 -0.43732 -0.36756 -0.083166 0.53766 0.39631 -0.37261 0.53284 0.53393 -0.018819 0.11036 0.33218 0.064948 0.23891 -0.24244 -0.042014 -0.07741 0.028556 0.055809 -0.41367 -0.0064931 -0.023273 -0.13379 -0.22402 0.31277 -0.22348 -0.40701 0.20321 -0.087236 -0.11642 0.0090969 0.11758 -0.299 0.038886 -0.039891 -0.24132 -0.00086221 0.015856 0.14702 0.13915 -0.12634 0.21634 0.21067 -0.16137 -0.27272 -0.13227 0.47801 -0.036164 -0.086152 0.16265 0.34619 -0.30247 -0.2282 -0.013847 -0.036032 0.0079312 0.21518 0.14255 -0.2113 0.26554 -0.11019 0.1352 0.15143 -0.12314 0.18185 -0.16599 0.11557 0.10364 -0.092372 0.032796 -0.03446 -0.12226 -0.1013 -0.12935 -0.16515 -0.063177 0.11936 -0.021273 -0.073346 -0.082574 0.087784 -0.046616 -0.22914 -0.091504 0.22979 -0.28009 0.10041 0.19654 -0.23778 -0.27172 -0.21215 -0.14341 0.36098 0.30481 0.16016 0.1794 0.20989 -0.034532 -0.38706 0.56697 
JKC -0.44296 0.46747 -0.001252 -0.072131 -0.33045 0.12404 -0.064504 0.5241 -0.038264 -0.11207 -0.1685 -0.017333 -0.30978 0.056805 -0.27687 0.026856 -0.036995 -0.11113 0.23742 0.14317 0.11326 0.42586 -0.1904 0.06301 -0.31034 -0.22186 0.018822 0.24839 0.21556 -0.1313 -0.41222 -0.22446 -0.23623 0.051554 0.46514 0.18969 -0.053345 0.15448 0.24465 0.34017 0.11316 0.32417 0.076117 0.29508 0.24611 -0.1701 0.25272 0.36273 -0.108 0.1555 -0.042838 0.030971 -0.043212 -0.20965 0.13791 -0.20754 0.14026 0.12064 0.07189 -0.12082 0.043802 -0.016951 0.21306 -0.12978 -0.29347 0.05194 0.16872 -0.12222 -0.11634 -0.092869 -0.25871 0.034541 0.28184 -0.1091 0.20662 0.10248 0.20524 -0.28108 0.035044 0.19162 -0.20432 -0.33457 -0.0082161 0.31264 -0.0019173 0.12551 -0.056162 -0.041332 -0.31113 0.22177 0.043165 0.14379 -0.2526 -0.093182 -0.18211 0.10512 0.33511 -0.14486 -0.5584 0.26394 
